~o
<STREAMINFO> 1 25
<VECSIZE> 25<NULLD><MFCC_E_D_N_Z><DIAGC>
~h "FS"
<BEGINHMM>
<NUMSTATES> 5
<STATE> 2
<MEAN> 25
 1.039382e-01 -2.248531e-03 4.638470e-02 3.272624e-02 7.066392e-03 4.701777e-03 5.236794e-02 -6.704477e-02 4.503359e-02 -3.214519e-02 -3.456462e-03 1.329643e-02 7.516230e-04 -3.811046e-04 5.224873e-04 -2.446836e-04 2.805292e-04 -3.506581e-04 2.998502e-04 -4.497656e-04 2.117583e-04 -3.129429e-04 1.972354e-04 2.015774e-06 1.340593e-03
<VARIANCE> 25
 8.045298e+00 8.470642e+00 2.110391e+01 3.111889e+01 2.961038e+01 2.832743e+01 3.338404e+01 3.913885e+01 3.150374e+01 2.135931e+01 2.167858e+01 2.300960e+01 7.256221e-01 8.682484e-01 2.385432e+00 3.402836e+00 3.356961e+00 3.119342e+00 3.732262e+00 4.441759e+00 3.442724e+00 2.347136e+00 2.385879e+00 2.584464e+00 7.659881e-02
<GCONST> 9.141493e+01
<STATE> 3
<MEAN> 25
 1.843197e-01 -5.458390e-02 1.100431e-01 -6.247280e-03 4.876645e-02 -4.578290e-02 8.038493e-02 -1.134095e-01 6.584753e-02 -6.828225e-02 2.336482e-02 1.051570e-02 4.606524e-04 -2.910854e-04 3.560525e-04 -2.087520e-04 1.999613e-04 -3.007952e-04 1.697531e-04 -2.715086e-04 1.324861e-04 -2.064775e-04 1.627583e-04 -1.429969e-05 9.114194e-04
<VARIANCE> 25
 7.621140e+00 8.324392e+00 2.099152e+01 3.114268e+01 2.948588e+01 2.832395e+01 3.334970e+01 3.912889e+01 3.147205e+01 2.129686e+01 2.170386e+01 2.308588e+01 7.277963e-01 8.639685e-01 2.399777e+00 3.420394e+00 3.341022e+00 3.133913e+00 3.727381e+00 4.448232e+00 3.438293e+00 2.344177e+00 2.391962e+00 2.596842e+00 7.612059e-02
<GCONST> 9.134148e+01
<STATE> 4
<MEAN> 25
 2.113986e-01 -9.429666e-02 1.431621e-01 -4.560369e-02 7.439166e-02 -8.816680e-02 8.714273e-02 -1.255576e-01 6.944703e-02 -8.475254e-02 4.633693e-02 1.489972e-03 1.567103e-04 -2.221907e-04 1.849448e-04 -2.327394e-04 1.092446e-04 -2.574443e-04 4.491318e-05 -8.593324e-05 3.331642e-05 -8.853833e-05 1.443263e-04 -3.567213e-05 5.169925e-04
<VARIANCE> 25
 7.329219e+00 8.229666e+00 2.089076e+01 3.101438e+01 2.934897e+01 2.833905e+01 3.334126e+01 3.903949e+01 3.138456e+01 2.123743e+01 2.170076e+01 2.311787e+01 7.250243e-01 8.609915e-01 2.403051e+00 3.417271e+00 3.327907e+00 3.146549e+00 3.728356e+00 4.443201e+00 3.427723e+00 2.338862e+00 2.393603e+00 2.607057e+00 7.535769e-02
<GCONST> 9.125264e+01
<TRANSP> 5
 0.000000e+00 1.000000e+00 0.000000e+00 0.000000e+00 0.000000e+00
 0.000000e+00 9.941134e-01 5.886549e-03 0.000000e+00 0.000000e+00
 0.000000e+00 0.000000e+00 9.941134e-01 5.886641e-03 0.000000e+00
 0.000000e+00 0.000000e+00 0.000000e+00 9.941135e-01 5.886512e-03
 0.000000e+00 0.000000e+00 0.000000e+00 0.000000e+00 0.000000e+00
<ENDHMM>
~h "Silent"
<BEGINHMM>
<NUMSTATES> 5
<STATE> 2
<MEAN> 25
 -4.737543e-01 1.597844e-01 8.351748e-03 -2.319187e-01 2.292948e-01 6.544351e-02 -2.998899e-01 5.680100e-01 -4.273380e-01 2.081346e-01 1.161985e-03 -1.905145e-01 -7.840546e-04 5.389579e-04 -4.404664e-04 -1.176313e-03 -5.099538e-03 -4.341713e-03 -5.903159e-04 -2.687305e-03 -1.056066e-03 7.815160e-04 -8.226230e-04 3.182511e-03 -1.486558e-03
<VARIANCE> 25
 1.101846e+01 8.441911e+00 2.169285e+01 3.158330e+01 3.112045e+01 2.780697e+01 3.377175e+01 4.066149e+01 3.328981e+01 2.173553e+01 2.155327e+01 2.298340e+01 7.494179e-01 8.757505e-01 2.360960e+00 3.463545e+00 3.594506e+00 3.045512e+00 3.737405e+00 4.411851e+00 3.592297e+00 2.386354e+00 2.354316e+00 2.562365e+00 7.900110e-02
<GCONST> 9.207031e+01
<STATE> 3
<MEAN> 25
 7.837721e-02 5.333064e-02 -1.021278e-02 1.330701e-01 -7.683389e-02 3.445705e-02 5.778410e-02 -1.034069e-01 8.331338e-02 -2.832234e-02 -3.065716e-02 5.037531e-02 4.283658e-04 -2.307114e-04 1.377633e-04 -6.878910e-05 -8.413391e-05 -2.363967e-04 2.524902e-04 -3.865145e-04 2.095002e-04 -1.301774e-04 1.578255e-04 1.958214e-05 6.980559e-04
<VARIANCE> 25
 8.433664e+00 8.015772e+00 2.138529e+01 3.073933e+01 3.051228e+01 2.724045e+01 3.294614e+01 3.915933e+01 3.204177e+01 2.110376e+01 2.147174e+01 2.307445e+01 7.588218e-01 8.413124e-01 2.394555e+00 3.469575e+00 3.526068e+00 3.011371e+00 3.686179e+00 4.409242e+00 3.541927e+00 2.330024e+00 2.366364e+00 2.584583e+00 7.797115e-02
<GCONST> 9.144549e+01
<STATE> 4
<MEAN> 25
 1.328751e-01 -3.675608e-02 -2.129108e-01 2.366630e-01 -2.812224e-01 6.350520e-02 1.335739e-01 -3.113914e-01 2.703775e-01 -6.327780e-02 -5.898813e-02 1.595620e-01 6.655692e-05 -8.250254e-04 1.199559e-04 -7.579369e-04 4.214614e-04 -6.178980e-04 -5.733494e-04 -1.129861e-03 -8.851872e-04 -2.345174e-04 1.103293e-03 5.149118e-04 1.124850e-03
<VARIANCE> 25
 8.584317e+00 7.788403e+00 2.085610e+01 2.961780e+01 2.958998e+01 2.680594e+01 3.257968e+01 3.883778e+01 3.175832e+01 2.103975e+01 2.132412e+01 2.281791e+01 7.514319e-01 8.299937e-01 2.372027e+00 3.338765e+00 3.412601e+00 2.992978e+00 3.624115e+00 4.309832e+00 3.458079e+00 2.321425e+00 2.355351e+00 2.537241e+00 9.282822e-02
<GCONST> 9.124976e+01
<TRANSP> 5
 0.000000e+00 1.000000e+00 0.000000e+00 0.000000e+00 0.000000e+00
 0.000000e+00 9.959916e-01 4.008347e-03 0.000000e+00 0.000000e+00
 0.000000e+00 0.000000e+00 9.959917e-01 4.008265e-03 0.000000e+00
 0.000000e+00 0.000000e+00 0.000000e+00 9.959917e-01 4.008311e-03
 0.000000e+00 0.000000e+00 0.000000e+00 0.000000e+00 0.000000e+00
<ENDHMM>
~h "Noise"
<BEGINHMM>
<NUMSTATES> 5
<STATE> 2
<MEAN> 25
 8.433387e-02 -7.601740e-03 4.158176e-02 3.459366e-03 1.948397e-04 -2.383177e-02 3.142629e-02 -3.482053e-02 3.549366e-02 -3.861760e-02 -2.714565e-03 8.177691e-03 7.143582e-04 -4.705439e-04 5.748097e-04 -3.995576e-04 3.283221e-04 -4.346590e-04 3.001685e-04 -4.279097e-04 1.689958e-04 -3.024734e-04 2.537569e-04 -3.731225e-05 1.477893e-03
<VARIANCE> 25
 6.328537e+00 8.015809e+00 1.975470e+01 2.765879e+01 2.792408e+01 2.903229e+01 3.397738e+01 3.767253e+01 3.146570e+01 2.211438e+01 2.239227e+01 2.374787e+01 5.807482e-01 8.202449e-01 2.193393e+00 3.033956e+00 3.179735e+00 3.224520e+00 3.777707e+00 4.215092e+00 3.474148e+00 2.426955e+00 2.448335e+00 2.640149e+00 3.899485e-02
<GCONST> 8.985361e+01
<STATE> 3
<MEAN> 25
 1.593328e-01 -7.109787e-02 1.139400e-01 -5.172649e-02 4.752741e-02 -8.104033e-02 6.569172e-02 -8.224369e-02 5.333915e-02 -7.205605e-02 3.075567e-02 -1.776763e-03 4.477066e-04 -3.973210e-04 4.201144e-04 -3.316684e-04 2.899565e-04 -3.373076e-04 2.068120e-04 -2.977891e-04 1.012566e-04 -1.931959e-04 2.131071e-04 -5.488680e-05 1.084060e-03
<VARIANCE> 25
 6.003643e+00 7.793664e+00 1.955363e+01 2.757362e+01 2.773853e+01 2.891053e+01 3.394682e+01 3.767665e+01 3.143846e+01 2.203632e+01 2.240278e+01 2.382715e+01 5.807198e-01 8.157133e-01 2.200750e+00 3.045031e+00 3.157875e+00 3.227388e+00 3.772090e+00 4.217102e+00 3.471848e+00 2.417374e+00 2.454730e+00 2.651275e+00 3.852665e-02
<GCONST> 8.973173e+01
<STATE> 4
<MEAN> 25
 1.853997e-01 -1.225307e-01 1.573230e-01 -9.607875e-02 8.685507e-02 -1.192940e-01 8.308487e-02 -1.068253e-01 5.993311e-02 -8.627819e-02 5.700397e-02 -1.385573e-02 1.502438e-04 -3.147244e-04 2.384631e-04 -2.665586e-04 2.370002e-04 -2.180735e-04 9.678371e-05 -1.533672e-04 6.063087e-06 -7.998855e-05 1.776649e-04 -6.629701e-05 6.418352e-04
<VARIANCE> 25
 5.758354e+00 7.639573e+00 1.940614e+01 2.743860e+01 2.758366e+01 2.879852e+01 3.391080e+01 3.768967e+01 3.142122e+01 2.199397e+01 2.241481e+01 2.387089e+01 5.776349e-01 8.118160e-01 2.203330e+00 3.045228e+00 3.140302e+00 3.225972e+00 3.769361e+00 4.218476e+00 3.469594e+00 2.410348e+00 2.460881e+00 2.658420e+00 3.803653e-02
<GCONST> 8.962080e+01
<TRANSP> 5
 0.000000e+00 1.000000e+00 0.000000e+00 0.000000e+00 0.000000e+00
 0.000000e+00 9.937527e-01 6.247301e-03 0.000000e+00 0.000000e+00
 0.000000e+00 0.000000e+00 9.937527e-01 6.247330e-03 0.000000e+00
 0.000000e+00 0.000000e+00 0.000000e+00 9.937528e-01 6.247191e-03
 0.000000e+00 0.000000e+00 0.000000e+00 0.000000e+00 0.000000e+00
<ENDHMM>
