~o
<STREAMINFO> 1 25
<VECSIZE> 25<NULLD><MFCC_E_D_N_Z><DIAGC>
~h "FS"
<BEGINHMM>
<NUMSTATES> 5
<STATE> 2
<MEAN> 25
 -1.909339e-01 -4.904046e-01 2.559565e-01 -5.307543e-01 1.642393e-01 -7.079029e-01 -1.519522e-01 3.676832e-01 7.302371e-02 -2.416118e-01 1.726206e-01 -1.603910e-01 -1.635499e-02 -2.270505e-02 -5.142396e-03 -1.923474e-02 8.853246e-03 3.480302e-03 8.267284e-03 -2.656615e-02 -2.342238e-02 2.064517e-03 1.347799e-03 -3.388428e-05 5.747179e-03
<VARIANCE> 25
 6.520192e+00 8.702134e+00 2.269271e+01 2.800857e+01 3.151574e+01 2.984401e+01 3.375209e+01 3.902995e+01 3.288003e+01 2.192299e+01 2.302825e+01 2.389699e+01 7.651122e-01 9.656750e-01 2.650433e+00 3.229156e+00 3.798966e+00 3.650287e+00 3.875386e+00 4.513200e+00 3.751607e+00 2.280194e+00 2.608559e+00 2.629628e+00 3.588740e-02
<GCONST> 9.144085e+01
<STATE> 3
<MEAN> 25
 3.277355e-01 -1.293223e-01 1.748743e-01 -4.302826e-01 -9.975776e-02 -2.896532e-01 -4.297313e-02 -1.181194e-01 3.886276e-02 -1.933604e-01 -6.812155e-02 9.700289e-02 2.471519e-03 4.927545e-04 -1.876073e-03 -4.221423e-04 1.573293e-03 1.613665e-03 -1.008327e-03 1.635462e-03 2.506815e-04 6.529662e-04 -2.076552e-03 1.034471e-03 1.048099e-04
<VARIANCE> 25
 5.754891e+00 7.188765e+00 2.078366e+01 2.958328e+01 2.805635e+01 2.661632e+01 3.331954e+01 3.764603e+01 3.116438e+01 2.049592e+01 2.154088e+01 2.360382e+01 6.480188e-01 8.207779e-01 2.409400e+00 3.460587e+00 3.072266e+00 3.064397e+00 3.723625e+00 4.133012e+00 3.546314e+00 2.223820e+00 2.504258e+00 2.669836e+00 3.653956e-02
<GCONST> 8.965308e+01
<STATE> 4
<MEAN> 25
 -1.036808e-02 -4.716602e-01 2.086931e-01 -6.793717e-01 2.999238e-01 -3.763798e-01 3.007786e-03 1.064400e-01 -1.645036e-01 -4.841214e-02 2.696823e-01 -1.853179e-01 -2.561349e-04 -3.444651e-05 2.873120e-04 6.838241e-04 -2.576269e-04 -3.126939e-04 5.781485e-04 4.752994e-05 6.555551e-04 3.578369e-05 -1.369764e-04 -6.081806e-04 -2.140802e-04
<VARIANCE> 25
 5.518714e+00 7.305928e+00 2.010544e+01 2.762088e+01 2.817457e+01 2.822229e+01 3.334464e+01 3.768728e+01 3.048114e+01 2.118657e+01 2.166325e+01 2.325247e+01 6.181732e-01 8.403677e-01 2.328750e+00 3.208074e+00 3.209036e+00 3.162357e+00 3.731634e+00 4.331820e+00 3.331343e+00 2.339019e+00 2.396250e+00 2.641988e+00 2.960213e-02
<GCONST> 8.930544e+01
<TRANSP> 5
 0.000000e+00 1.000000e+00 0.000000e+00 0.000000e+00 0.000000e+00
 0.000000e+00 9.698266e-01 3.017341e-02 0.000000e+00 0.000000e+00
 0.000000e+00 0.000000e+00 9.851930e-01 1.480705e-02 0.000000e+00
 0.000000e+00 0.000000e+00 0.000000e+00 9.986880e-01 1.311929e-03
 0.000000e+00 0.000000e+00 0.000000e+00 0.000000e+00 0.000000e+00
<ENDHMM>
~h "Silent"
<BEGINHMM>
<NUMSTATES> 5
<STATE> 2
<MEAN> 25
 -5.156059e+00 2.411912e+00 -3.328010e+00 9.616692e-01 -1.320190e+00 2.315961e+00 -2.384012e+00 3.456410e+00 -1.950203e+00 2.166477e+00 -1.238021e+00 -2.004939e-01 -7.206375e-03 1.516132e-03 -9.987335e-03 -1.351758e-02 -3.999200e-02 -1.414396e-02 -1.660427e-02 -5.745462e-03 -1.084995e-02 1.420974e-02 3.591559e-03 7.954354e-03 -1.204796e-02
<VARIANCE> 25
 6.545723e+00 1.009415e+01 1.454090e+01 2.734191e+01 3.227909e+01 2.543579e+01 3.090118e+01 2.987383e+01 3.376838e+01 2.131315e+01 1.864830e+01 1.938784e+01 5.306546e-01 1.079985e+00 1.624148e+00 2.321943e+00 3.919957e+00 2.823716e+00 3.877121e+00 3.711709e+00 3.620331e+00 2.784754e+00 2.022914e+00 2.004270e+00 6.874873e-02
<GCONST> 8.900536e+01
<STATE> 3
<MEAN> 25
 5.244119e-01 5.840893e-02 5.958862e-01 -6.457116e-02 3.099403e-01 -1.647837e-01 1.348541e-01 -1.091092e-01 -4.949401e-02 -1.302024e-01 1.107553e-01 -7.320332e-02 6.318243e-03 2.380344e-03 1.499762e-03 8.406617e-03 -9.435909e-04 2.672275e-03 2.741350e-03 -1.147173e-02 6.278595e-03 -2.762817e-03 -2.477626e-03 5.355733e-03 -9.812028e-05
<VARIANCE> 25
 8.320028e+00 7.352630e+00 2.290907e+01 3.537652e+01 3.429182e+01 2.552868e+01 3.241980e+01 4.189062e+01 3.337450e+01 1.999866e+01 2.111081e+01 2.330032e+01 1.004497e+00 8.669218e-01 2.730243e+00 4.236217e+00 4.033012e+00 2.862958e+00 3.643766e+00 4.803794e+00 3.809520e+00 2.234788e+00 2.371538e+00 2.645898e+00 9.937207e-02
<GCONST> 9.273633e+01
<STATE> 4
<MEAN> 25
 1.369842e+00 9.272885e-01 -4.255515e-01 2.074443e+00 -1.065215e+00 8.513887e-01 6.690741e-01 -1.281869e+00 1.134835e+00 -3.458867e-01 -6.285982e-01 7.998263e-01 -1.778486e-03 -2.872824e-03 3.215618e-03 -6.161442e-03 8.379985e-03 -5.436136e-03 2.903211e-05 4.699036e-03 -4.605180e-03 -5.058808e-03 2.995220e-03 1.812991e-04 6.944137e-03
<VARIANCE> 25
 1.199464e+01 8.717602e+00 2.228250e+01 3.387688e+01 3.147187e+01 2.539310e+01 3.189441e+01 4.077012e+01 3.211023e+01 2.025344e+01 2.032778e+01 2.170416e+01 1.096348e+00 8.808677e-01 2.610815e+00 3.846484e+00 3.748083e+00 2.855363e+00 3.568389e+00 4.646400e+00 3.490010e+00 2.243240e+00 2.244812e+00 2.466923e+00 2.686752e-01
<GCONST> 9.355000e+01
<TRANSP> 5
 0.000000e+00 1.000000e+00 0.000000e+00 0.000000e+00 0.000000e+00
 0.000000e+00 9.839665e-01 1.603352e-02 0.000000e+00 0.000000e+00
 0.000000e+00 0.000000e+00 9.946666e-01 5.333369e-03 0.000000e+00
 0.000000e+00 0.000000e+00 0.000000e+00 9.942603e-01 5.739763e-03
 0.000000e+00 0.000000e+00 0.000000e+00 0.000000e+00 0.000000e+00
<ENDHMM>
~h "Noise"
<BEGINHMM>
<NUMSTATES> 5
<STATE> 2
<MEAN> 25
 2.853343e-01 -1.196036e-01 4.062665e-02 -3.467030e-01 -1.923055e-02 -7.848161e-02 -6.248603e-03 -1.094413e-01 -2.569097e-01 -5.263459e-02 5.413134e-02 -5.500043e-02 -7.286745e-03 -1.270878e-04 1.739159e-02 -1.018877e-02 1.654072e-02 -1.224001e-02 -1.597897e-02 2.039952e-02 -7.708102e-03 1.157593e-02 5.317465e-03 -1.849725e-02 2.953478e-03
<VARIANCE> 25
 5.425609e+00 7.904830e+00 2.013737e+01 2.755677e+01 2.651266e+01 3.161390e+01 3.520808e+01 3.662870e+01 3.170794e+01 2.239162e+01 2.403123e+01 2.290351e+01 6.453515e-01 9.113141e-01 2.182039e+00 3.062814e+00 2.980116e+00 3.597884e+00 3.880970e+00 4.095158e+00 3.521026e+00 2.522860e+00 2.704395e+00 2.524467e+00 2.025087e-02
<GCONST> 8.950604e+01
<STATE> 3
<MEAN> 25
 8.630853e-02 -2.207669e-01 3.093383e-01 -3.795470e-01 1.253523e-01 -2.969226e-01 7.974763e-03 -1.479589e-01 -1.996058e-01 -1.376092e-01 1.366223e-01 -9.334119e-02 -2.668583e-04 -1.671872e-03 -2.048683e-03 -7.852332e-04 -3.186470e-03 -2.275214e-03 4.068015e-03 -1.892135e-03 3.533351e-03 8.724723e-04 -2.798824e-04 -5.571455e-04 4.074581e-04
<VARIANCE> 25
 4.815716e+00 7.326201e+00 1.997273e+01 2.710771e+01 2.743838e+01 2.990059e+01 3.550180e+01 3.852201e+01 3.150362e+01 2.147458e+01 2.325416e+01 2.457728e+01 5.629178e-01 8.784416e-01 2.326511e+00 3.017082e+00 3.156041e+00 3.479476e+00 3.921508e+00 4.420177e+00 3.471397e+00 2.275223e+00 2.584930e+00 2.764039e+00 1.640452e-02
<GCONST> 8.901649e+01
<STATE> 4
<MEAN> 25
 -7.897017e-02 -4.312308e-01 2.424961e-01 -4.263265e-01 3.164920e-01 -3.172070e-01 2.747652e-02 -9.844054e-03 -1.017833e-02 -5.977676e-02 2.081621e-01 -1.420094e-01 2.261346e-04 1.660628e-04 -1.009792e-03 2.094651e-06 -3.671514e-04 7.254074e-04 7.323729e-04 1.626427e-03 2.488033e-04 7.042859e-04 -2.500198e-04 -3.407646e-04 -6.129544e-05
<VARIANCE> 25
 4.364853e+00 6.696080e+00 1.861219e+01 2.560761e+01 2.649786e+01 2.833451e+01 3.340825e+01 3.724148e+01 3.119067e+01 2.224692e+01 2.238069e+01 2.387772e+01 4.967738e-01 7.659926e-01 2.128526e+00 2.946357e+00 3.027969e+00 3.201742e+00 3.724427e+00 4.125401e+00 3.459728e+00 2.447611e+00 2.463232e+00 2.646146e+00 1.376955e-02
<GCONST> 8.765862e+01
<TRANSP> 5
 0.000000e+00 1.000000e+00 0.000000e+00 0.000000e+00 0.000000e+00
 0.000000e+00 9.760478e-01 2.395227e-02 0.000000e+00 0.000000e+00
 0.000000e+00 0.000000e+00 9.840810e-01 1.591900e-02 0.000000e+00
 0.000000e+00 0.000000e+00 0.000000e+00 9.986869e-01 1.313062e-03
 0.000000e+00 0.000000e+00 0.000000e+00 0.000000e+00 0.000000e+00
<ENDHMM>
