~o
<STREAMINFO> 1 25
<VECSIZE> 25<NULLD><MFCC_E_D_N_Z><DIAGC>
~h "FS"
<BEGINHMM>
<NUMSTATES> 5
<STATE> 2
<MEAN> 25
 -9.434647e-03 -3.458897e-01 2.058203e-01 -4.015191e-01 1.763721e-01 -3.598714e-01 4.064748e-02 1.404306e-01 2.612444e-02 -1.521942e-01 6.428449e-02 -1.712802e-01 -1.659429e-02 -1.189819e-02 3.722208e-03 -2.835939e-02 1.016050e-02 -5.186836e-03 -1.150155e-03 1.033357e-02 -1.665114e-02 8.185879e-03 1.732886e-03 -1.104024e-02 5.959393e-03
<VARIANCE> 25
 6.479837e+00 8.384878e+00 2.141293e+01 2.866889e+01 2.972547e+01 2.883302e+01 3.309596e+01 3.854042e+01 3.251026e+01 2.192290e+01 2.284671e+01 2.385300e+01 7.245880e-01 9.047899e-01 2.433250e+00 3.252403e+00 3.394675e+00 3.340406e+00 3.835399e+00 4.533266e+00 3.555705e+00 2.255068e+00 2.507320e+00 2.755929e+00 3.794242e-02
<GCONST> 9.080978e+01
<STATE> 3
<MEAN> 25
 1.056600e-01 -3.148950e-01 2.111825e-01 -5.891895e-01 1.014021e-01 -3.919058e-01 -5.586230e-02 2.068482e-02 -3.653894e-02 -5.232966e-02 1.194597e-01 -1.010644e-01 8.526502e-04 7.784913e-04 1.506987e-03 -2.134444e-03 8.731789e-06 -1.092705e-03 -1.749615e-03 6.583717e-05 4.908172e-04 1.996800e-03 1.287345e-04 4.734102e-04 -8.714235e-05
<VARIANCE> 25
 5.959762e+00 7.636513e+00 2.042494e+01 2.903518e+01 2.843309e+01 2.756010e+01 3.360682e+01 3.797063e+01 3.152763e+01 2.122319e+01 2.204123e+01 2.328560e+01 6.577425e-01 8.491483e-01 2.348272e+00 3.388210e+00 3.165146e+00 3.145719e+00 3.804840e+00 4.306796e+00 3.539737e+00 2.258676e+00 2.480257e+00 2.665114e+00 3.426074e-02
<GCONST> 8.989224e+01
<STATE> 4
<MEAN> 25
 4.713970e-02 -4.186108e-01 2.030500e-01 -6.266673e-01 2.545781e-01 -3.617671e-01 -4.089200e-03 7.964821e-02 -1.419968e-01 -5.539469e-02 2.418782e-01 -1.566522e-01 -3.678617e-04 -1.247459e-04 2.390204e-04 4.915962e-04 2.806813e-04 8.071880e-05 2.566600e-04 2.094652e-04 3.427420e-04 -9.835455e-05 3.063358e-05 -1.934480e-04 -1.995431e-04
<VARIANCE> 25
 5.573932e+00 7.328333e+00 2.022837e+01 2.785692e+01 2.829806e+01 2.827929e+01 3.333766e+01 3.779835e+01 3.050620e+01 2.105384e+01 2.166495e+01 2.324133e+01 6.288344e-01 8.444706e-01 2.353381e+00 3.235850e+00 3.231845e+00 3.176335e+00 3.727304e+00 4.324121e+00 3.353932e+00 2.329995e+00 2.409076e+00 2.637893e+00 3.111552e-02
<GCONST> 8.944252e+01
<TRANSP> 5
 0.000000e+00 1.000000e+00 0.000000e+00 0.000000e+00 0.000000e+00
 0.000000e+00 9.710299e-01 2.897009e-02 0.000000e+00 0.000000e+00
 0.000000e+00 0.000000e+00 9.846188e-01 1.538118e-02 0.000000e+00
 0.000000e+00 0.000000e+00 0.000000e+00 9.986665e-01 1.333505e-03
 0.000000e+00 0.000000e+00 0.000000e+00 0.000000e+00 0.000000e+00
<ENDHMM>
~h "Silent"
<BEGINHMM>
<NUMSTATES> 5
<STATE> 2
<MEAN> 25
 -3.143403e+00 1.378230e+00 -1.393137e+00 -1.272826e-01 -5.568419e-02 1.100935e+00 -1.685349e+00 2.707312e+00 -1.784660e+00 1.393811e+00 -4.887303e-01 -4.887516e-01 -3.379839e-03 -6.988869e-04 -6.226019e-03 -4.936578e-03 -1.753859e-02 -6.782135e-03 -4.618399e-03 -5.518958e-03 -2.526945e-03 4.623315e-03 -5.507945e-04 8.299169e-03 -5.642240e-03
<VARIANCE> 25
 1.327274e+01 1.101337e+01 2.332092e+01 3.352560e+01 3.517679e+01 2.829398e+01 3.275763e+01 3.604950e+01 3.333336e+01 2.224188e+01 2.094518e+01 2.086239e+01 7.401969e-01 1.026815e+00 2.074148e+00 3.267218e+00 3.985901e+00 2.932122e+00 3.875720e+00 4.206288e+00 3.690790e+00 2.641800e+00 2.196075e+00 2.275781e+00 8.807886e-02
<GCONST> 9.260455e+01
<STATE> 3
<MEAN> 25
 5.859835e-01 2.237047e-01 7.264224e-01 1.579102e-01 3.664863e-01 -2.259972e-02 2.879121e-01 -7.433520e-02 -1.244476e-01 -2.160108e-01 7.865320e-02 -1.521002e-01 7.673317e-03 4.296942e-03 7.694064e-04 9.094249e-03 -8.549020e-03 1.588811e-03 2.107710e-03 -8.749873e-03 1.183954e-02 -1.025942e-03 -4.429817e-03 3.441845e-03 -2.155449e-03
<VARIANCE> 25
 8.990108e+00 7.803342e+00 2.320039e+01 3.616990e+01 3.600799e+01 2.583495e+01 3.279007e+01 4.147490e+01 3.395971e+01 2.035158e+01 2.097785e+01 2.350216e+01 1.047481e+00 8.909444e-01 2.778219e+00 4.356202e+00 4.343630e+00 2.845942e+00 3.667689e+00 4.895228e+00 3.931712e+00 2.223562e+00 2.314262e+00 2.678440e+00 9.769691e-02
<GCONST> 9.321296e+01
<STATE> 4
<MEAN> 25
 1.166316e+00 5.721306e-01 -3.310083e-01 1.608830e+00 -9.155688e-01 5.607363e-01 6.041660e-01 -1.233762e+00 1.076809e+00 -3.452980e-01 -4.660988e-01 7.092249e-01 8.571784e-04 -1.832155e-03 1.175588e-03 -1.934913e-03 4.480871e-03 -3.335866e-03 2.715338e-04 -2.554998e-04 -3.188231e-03 -3.188397e-03 2.044188e-03 3.283892e-04 5.041272e-03
<VARIANCE> 25
 1.058532e+01 8.242113e+00 2.206370e+01 3.313101e+01 3.101898e+01 2.509685e+01 3.158435e+01 3.998944e+01 3.159990e+01 1.987375e+01 2.040139e+01 2.205646e+01 1.028509e+00 8.495724e-01 2.605932e+00 3.790478e+00 3.681836e+00 2.808350e+00 3.544156e+00 4.610979e+00 3.512007e+00 2.225070e+00 2.281908e+00 2.496947e+00 2.148166e-01
<GCONST> 9.290364e+01
<TRANSP> 5
 0.000000e+00 1.000000e+00 0.000000e+00 0.000000e+00 0.000000e+00
 0.000000e+00 9.905677e-01 9.432302e-03 0.000000e+00 0.000000e+00
 0.000000e+00 0.000000e+00 9.878159e-01 1.218412e-02 0.000000e+00
 0.000000e+00 0.000000e+00 0.000000e+00 9.958774e-01 4.122558e-03
 0.000000e+00 0.000000e+00 0.000000e+00 0.000000e+00 0.000000e+00
<ENDHMM>
~h "Noise"
<BEGINHMM>
<NUMSTATES> 5
<STATE> 2
<MEAN> 25
 9.293727e-02 -2.409049e-01 1.720120e-01 -2.630757e-01 7.771003e-02 -1.874612e-01 1.294297e-01 5.572078e-03 -2.216080e-01 -1.922500e-01 1.558072e-01 -1.307634e-01 -8.239579e-03 -2.149740e-04 2.135944e-02 -1.082670e-02 1.515975e-02 8.754028e-04 -3.213159e-04 -2.294146e-03 -4.585186e-03 6.489763e-03 -4.184227e-03 -2.888549e-03 3.447383e-03
<VARIANCE> 25
 5.093415e+00 7.508064e+00 1.935837e+01 2.711553e+01 2.740118e+01 3.029460e+01 3.438915e+01 3.693859e+01 3.240094e+01 2.249964e+01 2.326094e+01 2.419939e+01 5.916035e-01 8.598775e-01 2.112524e+00 3.036822e+00 3.163213e+00 3.476800e+00 3.961187e+00 4.180387e+00 3.556287e+00 2.536745e+00 2.553772e+00 2.659994e+00 1.801805e-02
<GCONST> 8.913399e+01
<STATE> 3
<MEAN> 25
 4.308907e-02 -2.851168e-01 2.486516e-01 -3.888983e-01 1.660901e-01 -2.334612e-01 9.039987e-02 -7.188404e-02 -1.459430e-01 -1.099181e-01 1.625352e-01 -1.238873e-01 -9.317987e-04 -1.019990e-03 -3.388861e-04 -2.376602e-03 -3.398620e-04 -5.147139e-04 -6.536366e-05 -3.835573e-03 1.174464e-03 2.739708e-03 -3.176044e-04 -8.060493e-04 4.072765e-04
<VARIANCE> 25
 4.746442e+00 7.169192e+00 1.903829e+01 2.712487e+01 2.698763e+01 2.928225e+01 3.428605e+01 3.752691e+01 3.159998e+01 2.184315e+01 2.258178e+01 2.433998e+01 5.420366e-01 8.253912e-01 2.163151e+00 3.042031e+00 3.067231e+00 3.470133e+00 3.893486e+00 4.215562e+00 3.538306e+00 2.377249e+00 2.505527e+00 2.676512e+00 1.629267e-02
<GCONST> 8.855788e+01
<STATE> 4
<MEAN> 25
 -5.346048e-02 -4.043446e-01 2.412205e-01 -4.214431e-01 2.971227e-01 -3.059705e-01 2.021371e-02 -2.630929e-02 -2.126686e-02 -5.445461e-02 1.954902e-01 -1.313798e-01 3.289382e-04 3.254095e-04 -1.098025e-04 4.834171e-04 -8.191080e-06 2.852069e-04 2.148745e-04 3.333114e-04 -4.311009e-04 2.496056e-04 4.341399e-04 -2.200684e-04 -7.182535e-05
<VARIANCE> 25
 4.415701e+00 6.754070e+00 1.873219e+01 2.567200e+01 2.651923e+01 2.852448e+01 3.357361e+01 3.730322e+01 3.119351e+01 2.220821e+01 2.247651e+01 2.384836e+01 5.023546e-01 7.736757e-01 2.147048e+00 2.949679e+00 3.025074e+00 3.222836e+00 3.725545e+00 4.142698e+00 3.455636e+00 2.436061e+00 2.477296e+00 2.649265e+00 1.421585e-02
<GCONST> 8.777713e+01
<TRANSP> 5
 0.000000e+00 1.000000e+00 0.000000e+00 0.000000e+00 0.000000e+00
 0.000000e+00 9.673474e-01 3.265267e-02 0.000000e+00 0.000000e+00
 0.000000e+00 0.000000e+00 9.819595e-01 1.804060e-02 0.000000e+00
 0.000000e+00 0.000000e+00 0.000000e+00 9.987181e-01 1.281880e-03
 0.000000e+00 0.000000e+00 0.000000e+00 0.000000e+00 0.000000e+00
<ENDHMM>
