~o
<STREAMINFO> 1 25
<VECSIZE> 25<NULLD><MFCC_E_D_N_Z><DIAGC>
~h "FS"
<BEGINHMM>
<NUMSTATES> 5
<STATE> 2
<MEAN> 25
 -4.498557e-01 -7.640382e-01 3.303755e-01 -7.296312e-01 4.373301e-01 -8.165179e-01 -1.966501e-01 3.912214e-01 -1.292439e-01 -1.598789e-01 3.643688e-01 -3.955416e-01 -1.494191e-02 -1.986421e-02 -4.463928e-03 -1.991566e-02 4.219107e-03 8.663507e-03 1.103666e-02 -2.564361e-02 -1.969590e-02 3.888563e-03 3.232450e-03 8.139848e-03 5.062937e-03
<VARIANCE> 25
 6.155125e+00 8.731367e+00 2.267416e+01 2.798875e+01 3.156506e+01 2.964015e+01 3.405985e+01 4.054715e+01 3.340244e+01 2.172601e+01 2.268302e+01 2.426535e+01 7.271210e-01 9.911843e-01 2.637764e+00 3.170549e+00 3.783664e+00 3.610015e+00 3.828798e+00 4.591050e+00 3.895119e+00 2.302345e+00 2.676961e+00 2.712443e+00 3.097699e-02
<GCONST> 9.133281e+01
<STATE> 3
<MEAN> 25
 4.732521e-01 -5.277073e-02 1.627991e-01 -3.313203e-01 -2.497896e-02 -1.540440e-01 -4.086898e-02 -2.707387e-01 -6.316523e-02 -1.152591e-01 2.023658e-02 5.179037e-02 2.310858e-03 1.682010e-03 1.958456e-04 1.038894e-03 1.354967e-03 -5.036481e-04 -1.318936e-03 2.633770e-03 -1.848012e-03 -2.258258e-05 -1.928090e-04 -2.122006e-03 6.453737e-05
<VARIANCE> 25
 5.705809e+00 6.793459e+00 2.112665e+01 2.838369e+01 2.846938e+01 2.778600e+01 3.258398e+01 3.695190e+01 3.085379e+01 2.019761e+01 2.152115e+01 2.277700e+01 6.459239e-01 7.699106e-01 2.483094e+00 3.365018e+00 3.131118e+00 3.083471e+00 3.676503e+00 4.013403e+00 3.342791e+00 2.186808e+00 2.401426e+00 2.581305e+00 3.854037e-02
<GCONST> 8.933810e+01
<STATE> 4
<MEAN> 25
 -6.075483e-02 -5.097659e-01 2.097760e-01 -7.235222e-01 3.204132e-01 -4.001075e-01 6.729996e-03 1.540509e-01 -1.680528e-01 -4.685854e-02 2.840835e-01 -1.932884e-01 -9.756593e-04 -8.716370e-04 -3.488465e-04 2.708231e-04 -1.002681e-04 -1.103277e-04 9.248754e-04 1.036191e-03 1.358346e-03 1.001551e-04 -3.937585e-04 -5.171612e-04 -1.761062e-04
<VARIANCE> 25
 5.455100e+00 7.344807e+00 1.993620e+01 2.761452e+01 2.803662e+01 2.813077e+01 3.347391e+01 3.772790e+01 3.034278e+01 2.133267e+01 2.164544e+01 2.334657e+01 6.157534e-01 8.502434e-01 2.303744e+00 3.206225e+00 3.202326e+00 3.161492e+00 3.740926e+00 4.369378e+00 3.331783e+00 2.357027e+00 2.396701e+00 2.653754e+00 2.859610e-02
<GCONST> 8.927579e+01
<TRANSP> 5
 0.000000e+00 1.000000e+00 0.000000e+00 0.000000e+00 0.000000e+00
 0.000000e+00 9.776325e-01 2.236748e-02 0.000000e+00 0.000000e+00
 0.000000e+00 0.000000e+00 9.927816e-01 7.218471e-03 0.000000e+00
 0.000000e+00 0.000000e+00 0.000000e+00 9.985193e-01 1.480717e-03
 0.000000e+00 0.000000e+00 0.000000e+00 0.000000e+00 0.000000e+00
<ENDHMM>
~h "Silent"
<BEGINHMM>
<NUMSTATES> 5
<STATE> 2
<MEAN> 25
 -5.219248e+00 2.431252e+00 -3.361422e+00 9.971259e-01 -1.317717e+00 2.357107e+00 -2.394749e+00 3.486746e+00 -1.942339e+00 2.174531e+00 -1.258742e+00 -1.863950e-01 -7.116472e-03 2.180365e-03 -7.612505e-03 -1.320176e-02 -3.809267e-02 -1.718596e-02 -2.035832e-02 -5.092666e-03 -5.928571e-03 1.617461e-02 2.341673e-03 5.857188e-03 -1.177222e-02
<VARIANCE> 25
 6.079833e+00 1.000035e+01 1.425384e+01 2.711992e+01 3.225365e+01 2.517126e+01 3.079199e+01 2.960854e+01 3.373545e+01 2.126789e+01 1.864672e+01 1.934398e+01 5.096875e-01 1.060440e+00 1.603891e+00 2.300247e+00 3.930853e+00 2.804746e+00 3.866510e+00 3.688502e+00 3.609712e+00 2.797152e+00 2.012703e+00 1.998443e+00 6.686155e-02
<GCONST> 8.873714e+01
<STATE> 3
<MEAN> 25
 5.471117e-01 4.394820e-02 3.739584e-01 9.414185e-02 8.454415e-02 -9.115127e-02 2.020755e-01 -2.688104e-01 1.147555e-01 -1.506721e-01 4.113764e-02 2.397263e-02 6.802064e-03 3.697621e-03 2.840239e-03 7.066853e-03 -2.095342e-03 1.083933e-03 2.749232e-03 -1.160077e-02 3.282145e-03 -2.557563e-03 -1.926254e-03 3.364040e-03 9.625436e-05
<VARIANCE> 25
 8.613885e+00 7.187520e+00 2.260389e+01 3.439368e+01 3.366127e+01 2.507651e+01 3.195855e+01 4.119473e+01 3.305827e+01 2.002627e+01 2.094627e+01 2.305709e+01 9.919351e-01 8.473026e-01 2.660599e+00 4.088823e+00 3.969625e+00 2.836075e+00 3.585884e+00 4.676589e+00 3.736521e+00 2.231035e+00 2.349428e+00 2.612956e+00 1.061195e-01
<GCONST> 9.247070e+01
<STATE> 4
<MEAN> 25
 1.606280e+00 1.219029e+00 -3.611101e-01 2.457894e+00 -1.131889e+00 1.012863e+00 7.212383e-01 -1.365412e+00 1.236291e+00 -3.853947e-01 -7.452359e-01 8.984509e-01 -1.882340e-03 -3.433220e-03 2.865693e-03 -7.328487e-03 9.106490e-03 -6.471842e-03 5.877434e-04 4.484378e-03 -5.340251e-03 -5.473630e-03 5.075824e-03 1.631872e-03 8.134353e-03
<VARIANCE> 25
 1.232326e+01 9.039865e+00 2.293070e+01 3.461094e+01 3.190808e+01 2.604393e+01 3.255463e+01 4.166637e+01 3.254121e+01 2.032108e+01 2.040292e+01 2.169124e+01 1.144007e+00 9.169233e-01 2.688175e+00 3.967238e+00 3.754472e+00 2.903229e+00 3.651696e+00 4.812132e+00 3.522514e+00 2.259145e+00 2.251350e+00 2.471923e+00 3.096301e-01
<GCONST> 9.414687e+01
<TRANSP> 5
 0.000000e+00 1.000000e+00 0.000000e+00 0.000000e+00 0.000000e+00
 0.000000e+00 9.838344e-01 1.616554e-02 0.000000e+00 0.000000e+00
 0.000000e+00 0.000000e+00 9.956549e-01 4.345048e-03 0.000000e+00
 0.000000e+00 0.000000e+00 0.000000e+00 9.924867e-01 7.513272e-03
 0.000000e+00 0.000000e+00 0.000000e+00 0.000000e+00 0.000000e+00
<ENDHMM>
~h "Noise"
<BEGINHMM>
<NUMSTATES> 5
<STATE> 2
<MEAN> 25
 3.523362e-01 -5.755879e-02 -2.806789e-02 -3.356482e-01 -7.123891e-02 -1.200925e-02 6.079055e-03 -9.826361e-02 -3.498690e-01 -7.279854e-02 5.618072e-02 -3.154479e-02 -9.447270e-03 -3.239694e-03 1.503440e-02 -1.002423e-02 2.719861e-02 -1.080826e-02 -2.011226e-02 3.379289e-02 -1.082328e-02 6.206752e-03 2.694367e-03 -2.181648e-02 3.136632e-03
<VARIANCE> 25
 5.624919e+00 8.082467e+00 2.022424e+01 2.766907e+01 2.591062e+01 3.134671e+01 3.488155e+01 3.534417e+01 3.069190e+01 2.186263e+01 2.330000e+01 2.178210e+01 6.963310e-01 9.467600e-01 2.189009e+00 3.074211e+00 2.868377e+00 3.646533e+00 3.836774e+00 3.853186e+00 3.467413e+00 2.492838e+00 2.602525e+00 2.399232e+00 2.166140e-02
<GCONST> 8.933335e+01
<STATE> 3
<MEAN> 25
 5.540122e-02 -2.327386e-01 3.044369e-01 -3.128836e-01 1.526038e-01 -3.110127e-01 -2.133686e-02 -1.797726e-01 -1.483124e-01 -1.255606e-01 1.360548e-01 -5.580742e-02 -1.172073e-03 -1.936727e-03 -8.986538e-05 -1.587846e-03 -4.690798e-03 -3.256606e-03 3.712522e-03 -4.548107e-03 7.161511e-03 4.728757e-05 -4.311762e-03 1.218747e-03 4.971670e-04
<VARIANCE> 25
 4.835771e+00 7.492367e+00 2.084624e+01 2.700971e+01 2.835962e+01 3.024427e+01 3.620065e+01 4.000872e+01 3.171936e+01 2.145228e+01 2.392182e+01 2.507519e+01 5.644138e-01 9.151452e-01 2.478027e+00 3.004862e+00 3.293394e+00 3.492547e+00 3.989624e+00 4.751091e+00 3.484675e+00 2.246560e+00 2.676028e+00 2.805785e+00 1.603857e-02
<GCONST> 8.949482e+01
<STATE> 4
<MEAN> 25
 -8.535420e-02 -4.374082e-01 2.464573e-01 -4.349471e-01 3.244053e-01 -3.164459e-01 3.257672e-02 -2.187546e-03 -5.886990e-03 -5.629738e-02 2.094046e-01 -1.488991e-01 -2.744828e-04 -3.879345e-04 -1.762663e-03 1.856868e-04 2.475060e-04 1.602000e-03 7.404366e-04 2.325950e-03 1.233189e-05 3.272381e-04 -3.793148e-05 1.630609e-04 -2.708246e-05
<VARIANCE> 25
 4.349380e+00 6.663577e+00 1.848456e+01 2.560832e+01 2.643773e+01 2.829415e+01 3.330590e+01 3.714291e+01 3.122029e+01 2.228781e+01 2.231565e+01 2.386923e+01 4.940762e-01 7.601490e-01 2.107301e+00 2.947465e+00 3.018804e+00 3.192690e+00 3.715810e+00 4.100723e+00 3.460866e+00 2.453517e+00 2.454623e+00 2.644265e+00 1.370291e-02
<GCONST> 8.759022e+01
<TRANSP> 5
 0.000000e+00 1.000000e+00 0.000000e+00 0.000000e+00 0.000000e+00
 0.000000e+00 9.781530e-01 2.184700e-02 0.000000e+00 0.000000e+00
 0.000000e+00 0.000000e+00 9.876896e-01 1.231038e-02 0.000000e+00
 0.000000e+00 0.000000e+00 0.000000e+00 9.986506e-01 1.349478e-03
 0.000000e+00 0.000000e+00 0.000000e+00 0.000000e+00 0.000000e+00
<ENDHMM>
