~o
<STREAMINFO> 1 25
<VECSIZE> 25<NULLD><MFCC_E_D_N_Z><DIAGC>
~h "proto_5states"
<BEGINHMM>
<NUMSTATES> 5
<STATE> 2
<MEAN> 25
 -6.980959e-08 -8.040452e-08 -1.220988e-07 3.268594e-08 -1.010389e-07 1.768403e-07 6.213963e-08 -1.597690e-07 -1.158411e-07 -4.413474e-08 -1.858989e-08 -4.374326e-08 9.101495e-05 -2.370845e-04 9.119944e-05 -5.163655e-04 -8.663649e-04 -1.161785e-03 -1.406693e-04 -9.642064e-04 -3.174406e-04 1.905832e-05 1.679727e-04 7.472869e-04 4.213831e-04
<VARIANCE> 25
 8.361279e+00 8.071420e+00 2.089721e+01 3.009792e+01 2.969024e+01 2.781162e+01 3.332868e+01 3.916367e+01 3.204116e+01 2.145794e+01 2.168776e+01 2.316316e+01 7.121267e-01 8.451277e-01 2.343625e+00 3.343534e+00 3.403667e+00 3.081304e+00 3.707934e+00 4.357386e+00 3.498661e+00 2.360569e+00 2.384118e+00 2.586310e+00 7.310095e-02
<GCONST> 9.124375e+01
<STATE> 3
<MEAN> 25
 -6.980959e-08 -8.040452e-08 -1.220988e-07 3.268594e-08 -1.010389e-07 1.768403e-07 6.213963e-08 -1.597690e-07 -1.158411e-07 -4.413474e-08 -1.858989e-08 -4.374326e-08 9.101495e-05 -2.370845e-04 9.119944e-05 -5.163655e-04 -8.663649e-04 -1.161785e-03 -1.406693e-04 -9.642064e-04 -3.174406e-04 1.905832e-05 1.679727e-04 7.472869e-04 4.213831e-04
<VARIANCE> 25
 8.361279e+00 8.071420e+00 2.089721e+01 3.009792e+01 2.969024e+01 2.781162e+01 3.332868e+01 3.916367e+01 3.204116e+01 2.145794e+01 2.168776e+01 2.316316e+01 7.121267e-01 8.451277e-01 2.343625e+00 3.343534e+00 3.403667e+00 3.081304e+00 3.707934e+00 4.357386e+00 3.498661e+00 2.360569e+00 2.384118e+00 2.586310e+00 7.310095e-02
<GCONST> 9.124375e+01
<STATE> 4
<MEAN> 25
 -6.980959e-08 -8.040452e-08 -1.220988e-07 3.268594e-08 -1.010389e-07 1.768403e-07 6.213963e-08 -1.597690e-07 -1.158411e-07 -4.413474e-08 -1.858989e-08 -4.374326e-08 9.101495e-05 -2.370845e-04 9.119944e-05 -5.163655e-04 -8.663649e-04 -1.161785e-03 -1.406693e-04 -9.642064e-04 -3.174406e-04 1.905832e-05 1.679727e-04 7.472869e-04 4.213831e-04
<VARIANCE> 25
 8.361279e+00 8.071420e+00 2.089721e+01 3.009792e+01 2.969024e+01 2.781162e+01 3.332868e+01 3.916367e+01 3.204116e+01 2.145794e+01 2.168776e+01 2.316316e+01 7.121267e-01 8.451277e-01 2.343625e+00 3.343534e+00 3.403667e+00 3.081304e+00 3.707934e+00 4.357386e+00 3.498661e+00 2.360569e+00 2.384118e+00 2.586310e+00 7.310095e-02
<GCONST> 9.124375e+01
<TRANSP> 5
 0.000000e+00 1.000000e+00 0.000000e+00 0.000000e+00 0.000000e+00
 0.000000e+00 6.000000e-01 4.000000e-01 0.000000e+00 0.000000e+00
 0.000000e+00 0.000000e+00 6.000000e-01 4.000000e-01 0.000000e+00
 0.000000e+00 0.000000e+00 0.000000e+00 6.000000e-01 4.000000e-01
 0.000000e+00 0.000000e+00 0.000000e+00 0.000000e+00 0.000000e+00
<ENDHMM>
